34 64
1 0.2428408 -0.21579167 0.2845197 0.19368586 0.065246 -0.25171083 0.06368273 0.18234983 -0.22898173 -0.0263491 0.20392577 -0.22360525 -0.071803994 0.23132154 -0.24903938 0.3457666 -0.12204267 0.042059228 -0.12208599 0.1952086 0.51789016 0.14641371 0.57559454 -0.08802624 0.096071616 0.32043803 -0.3520434 -0.2506586 -0.43836564 -0.28850684 -0.0036038961 -0.06830194 -0.32534936 -0.34867594 0.13853543 0.240794 0.36159056 0.16872588 0.3806945 -0.10201244 -0.09383294 0.30637825 -0.1203968 -0.44245034 -0.0286012 -0.13750052 -0.07505969 -0.1311925 -0.035539713 0.1802897 0.02023124 0.1598025 0.03926475 0.3045332 0.5060346 0.1623021 0.24535568 -0.24145961 -0.17720884 -0.029713402 0.14597942 -0.40223658 -0.07064864 0.107841626
34 -0.1199552 0.1533439 0.32955372 0.14165689 -0.12481382 -0.33632633 0.08654758 0.10678072 -0.11342737 -0.07264487 0.29454562 0.087273695 0.4335583 -0.1597557 0.031102393 -0.0036525563 -0.21919599 0.12561609 0.08034091 0.15918775 0.028145691 0.16649921 0.44953054 -0.092770524 0.024285125 0.2726914 -0.22487351 0.05663826 0.13636431 -0.07133173 -0.29300687 0.07848629 -0.60607725 -0.44387463 0.19700614 0.24602248 0.014991972 0.33880696 0.52372366 0.075736225 0.3709139 0.112302795 -0.09893497 -0.38394007 0.079435475 0.14774369 -0.011443725 -0.3310267 -0.076067716 0.11955127 0.30294305 0.19029231 0.11745449 0.23455653 0.35617533 0.3035373 0.23644805 -0.11779837 0.051837374 -0.1668628 0.05786248 -0.24723506 -0.14690523 0.15834315
33 -0.113326974 0.15333809 0.33718455 0.121200725 -0.11755283 -0.33919927 0.08396164 0.094281405 -0.0980275 -0.048483647 0.2942454 0.099815324 0.41888943 -0.16270809 0.018780021 0.012142322 -0.21560274 0.13050207 0.08153571 0.1411063 0.04135827 0.16075052 0.43997937 -0.09991633 0.029362354 0.2578151 -0.22214915 0.06517792 0.14283474 -0.060367964 -0.298531 0.081112154 -0.585373 -0.41579112 0.18181354 0.22144316 0.0389415 0.3329259 0.5120207 0.054907322 0.35983804 0.13072397 -0.10294519 -0.39777938 0.09256679 0.16255496 -0.013058031 -0.3227435 -0.07664903 0.10344097 0.29688945 0.16951206 0.08672431 0.22209345 0.36142197 0.28381658 0.22889747 -0.11044593 0.038044453 -0.16369393 0.051457927 -0.25589007 -0.13256851 0.14284135
3 0.037455108 -0.023676177 0.3135213 0.15779732 -0.027413446 -0.3143334 0.05411252 0.1375021 -0.16663082 -0.03919054 0.2483499 -0.043138966 0.2451175 0.011562937 -0.081587784 0.15232475 -0.1883942 0.101144664 -0.011939397 0.17920351 0.25335607 0.15638004 0.5117023 -0.10585122 0.067467965 0.2994234 -0.3118644 -0.0841112 -0.113111705 -0.17094822 -0.19199073 0.0050941226 -0.48097262 -0.42029673 0.19829577 0.25089806 0.15309379 0.28535804 0.4828546 -0.0060893656 0.17285798 0.19566858 -0.11874597 -0.42471543 0.041768037 0.045790568 -0.025806427 -0.25138846 -0.065794274 0.14744766 0.18577985 0.19579948 0.08600947 0.25952807 0.42940813 0.2532556 0.22887301 -0.15897296 -0.03405575 -0.10693524 0.077461906 -0.3337654 -0.13364784 0.13107075
2 0.14031589 -0.13043188 0.298183 0.16297394 0.030262517 -0.29444095 0.07939308 0.15684721 -0.2212076 -0.018318731 0.24827199 -0.12479054 0.07990288 0.120944336 -0.14686178 0.25795433 -0.14103779 0.06896472 -0.066308446 0.22194009 0.39915416 0.15876463 0.5413212 -0.09742683 0.08373655 0.29107687 -0.35572454 -0.1650057 -0.26566795 -0.23679441 -0.10472805 -0.03028383 -0.40994537 -0.3911782 0.16189508 0.25476697 0.2790499 0.23192708 0.45634735 -0.029084321 0.07014141 0.25458074 -0.091051824 -0.45256963 -0.008053853 -0.029945418 -0.038259536 -0.2039097 -0.041338697 0.15737925 0.11471483 0.1932038 0.07040896 0.26654473 0.4863421 0.23173726 0.25054225 -0.20800683 -0.08423481 -0.074993975 0.13704903 -0.37936124 -0.11456377 0.14794703
4 0.15662406 -0.13856012 0.3261579 0.18552893 0.009481131 -0.28564337 0.07384414 0.16757531 -0.2088702 -0.033138912 0.23807877 -0.14982015 0.06993774 0.11645111 -0.15648784 0.2698169 -0.13247912 0.05605295 -0.08205309 0.22332704 0.40342712 0.16202454 0.5620049 -0.10136152 0.09558047 0.3130696 -0.34039325 -0.17721231 -0.28449112 -0.23541008 -0.08398307 -0.021768257 -0.43612418 -0.41009998 0.15751219 0.24736066 0.27516246 0.25166237 0.452682 -0.050291713 0.050710622 0.26506922 -0.09536481 -0.44592175 0.013446486 -0.061349574 -0.043805677 -0.18624012 -0.049382098 0.1512418 0.114048734 0.17740642 0.054560695 0.30164355 0.47386324 0.21129903 0.23350112 -0.19093984 -0.11116023 -0.06409056 0.11795946 -0.36318415 -0.092697464 0.14090577
32 -0.048088584 0.06617621 0.34618178 0.16496111 -0.0809421 -0.34366465 0.06332734 0.10677331 -0.1379605 -0.048498515 0.3061859 0.015254189 0.3338466 -0.093386605 -0.038434096 0.08098952 -0.21013874 0.11349232 0.014936738 0.17511268 0.14117658 0.17893793 0.47325602 -0.07933231 0.018589254 0.30316237 -0.28959993 -0.020835811 -0.030472256 -0.13007411 -0.2548341 0.027999105 -0.5698571 -0.41666242 0.20806044 0.24751261 0.11596054 0.2803321 0.5176419 0.047259334 0.25849807 0.1787679 -0.10429827 -0.40958124 0.05002645 0.09108064 -0.0223812 -0.28381917 -0.055690214 0.11300776 0.2757355 0.17612429 0.097890355 0.24599186 0.40907866 0.29136285 0.24802141 -0.15320696 -0.02743843 -0.10101895 0.08140941 -0.30891854 -0.12213057 0.16339369
14 0.094384454 -0.07420972 0.2939678 0.1568838 0.010857411 -0.278197 0.058405936 0.12003404 -0.18631446 -0.047686357 0.2235172 -0.097160466 0.14694199 0.047697272 -0.10861883 0.19407287 -0.1594662 0.068624966 -0.016944794 0.19206965 0.28382254 0.15586126 0.47368222 -0.07356157 0.056398243 0.2836282 -0.28338033 -0.10929418 -0.18440835 -0.16928743 -0.10973039 -0.022054872 -0.4361537 -0.37732613 0.16523911 0.22275282 0.19116503 0.21835093 0.42793956 -0.016649919 0.090137824 0.2037113 -0.09246837 -0.4036295 0.027675599 -0.016146332 -0.031450234 -0.21984181 -0.035837464 0.14719136 0.13955243 0.16645439 0.0509509 0.25327596 0.41440797 0.2051941 0.20831695 -0.17039101 -0.06459758 -0.073241115 0.0911219 -0.33188897 -0.10321541 0.12482606
24 -0.0902094 0.09361576 0.33334327 0.13488618 -0.108852796 -0.34763157 0.07618348 0.10046392 -0.14403512 -0.050506063 0.30855465 0.06019564 0.36174518 -0.124200985 0.0024696041 0.041836955 -0.20650105 0.12739573 0.05646226 0.15393786 0.083606794 0.15594661 0.4645779 -0.06810312 0.03662789 0.28990585 -0.25068524 0.003188695 0.061353605 -0.11931776 -0.28793573 0.048415672 -0.5918502 -0.4424206 0.19850197 0.26241845 0.07619825 0.31244165 0.5214748 0.034592524 0.32281286 0.17180343 -0.12084975 -0.4115635 0.09016793 0.10872039 -0.035925884 -0.31721157 -0.04690198 0.122039 0.2996311 0.17429547 0.11149841 0.23981081 0.39808884 0.30591038 0.23167709 -0.1435 0.014900118 -0.12050933 0.07568189 -0.27135703 -0.13414814 0.17759262
9 -0.019220235 0.038736198 0.30818117 0.1493796 -0.043509383 -0.3116565 0.07925401 0.101738505 -0.14508404 -0.059468195 0.24404337 0.005900571 0.26187775 -0.03404139 -0.032329816 0.12455984 -0.19425048 0.088191085 0.03266422 0.17218938 0.17377605 0.13669701 0.4672825 -0.09871217 0.05854053 0.26358235 -0.26075247 -0.038111977 -0.03933552 -0.13097553 -0.1920382 0.028240426 -0.50625205 -0.39710745 0.18534034 0.2328942 0.12243034 0.2938089 0.4512888 0.017085942 0.2340525 0.18097232 -0.09539108 -0.4090949 0.050936416 0.061078187 -0.009166196 -0.25644317 -0.0551538 0.1307752 0.20688045 0.16051756 0.08314414 0.2369798 0.40445247 0.2685522 0.22569436 -0.13832164 -0.03200442 -0.11037692 0.067041665 -0.30626735 -0.12444266 0.12133724
8 0.13369992 -0.11226124 0.32494584 0.15441202 0.018860085 -0.27903435 0.05289195 0.13478693 -0.20825653 -0.0391075 0.24202377 -0.12994264 0.10526108 0.09433324 -0.15457872 0.21635039 -0.15911463 0.059849523 -0.060394503 0.19055802 0.3564042 0.14730759 0.54811555 -0.094188415 0.06898759 0.31480366 -0.34660813 -0.15801361 -0.25062588 -0.22293362 -0.11672625 -0.0017251314 -0.44423628 -0.38807186 0.18567668 0.23558353 0.25435486 0.2557241 0.4474347 -0.02057418 0.09338027 0.23440325 -0.1163009 -0.43464905 0.011115051 -0.038542036 -0.023078172 -0.22118531 -0.060060814 0.16080546 0.12427256 0.18429579 0.0598868 0.2744956 0.46467748 0.23347853 0.25648704 -0.20116447 -0.08985509 -0.06901214 0.13098502 -0.37123156 -0.09092971 0.15307085
28 -0.031206327 0.05001988 0.34018213 0.15383059 -0.07769063 -0.33893463 0.073760614 0.11665963 -0.14109829 -0.04795042 0.28405225 0.0011292228 0.305806 -0.06072129 -0.059275124 0.09636028 -0.19501518 0.118327886 0.01943699 0.1690956 0.15429017 0.17974542 0.48305395 -0.073805846 0.023173116 0.3130961 -0.29712096 -0.04019778 -0.047798622 -0.15643136 -0.23610061 0.02758993 -0.568793 -0.4296923 0.1840185 0.26266775 0.14719579 0.29036486 0.5029488 0.026812907 0.25641096 0.17922719 -0.11740907 -0.43037432 0.07417298 0.07559922 -0.050218698 -0.28366345 -0.041660685 0.12003919 0.2390899 0.20067745 0.08583409 0.26019004 0.42488986 0.2945031 0.25835282 -0.15424924 -0.03094359 -0.09903271 0.081482686 -0.29881218 -0.13824874 0.17826974
6 0.24114282 -0.21098608 0.30620798 0.20099635 0.07794885 -0.2575504 0.050569613 0.18494356 -0.2000699 -0.028623499 0.20793603 -0.24917701 -0.074967064 0.22133915 -0.28118485 0.38607273 -0.1536269 0.04352319 -0.09737109 0.23308142 0.5361149 0.15028924 0.612948 -0.089795895 0.06478134 0.38473284 -0.34738767 -0.28628808 -0.4453553 -0.3083453 0.014574645 -0.0861742 -0.41532108 -0.34732282 0.1552085 0.2952678 0.37678924 0.19711308 0.41534686 -0.12650263 -0.08490934 0.32616487 -0.11758697 -0.47781882 0.0005851416 -0.15139116 -0.07698442 -0.17116515 -0.05575212 0.16485004 0.04371929 0.13820979 0.063215844 0.36323828 0.54727995 0.16638172 0.25883034 -0.24681577 -0.20466852 -0.077854484 0.15513983 -0.43730122 -0.041976903 0.1222493
7 0.23730299 -0.16692077 0.33232015 0.22087713 0.054921996 -0.27408692 0.07035903 0.17340451 -0.22545029 -0.01994115 0.23136032 -0.2255823 -0.020933872 0.20139804 -0.26004997 0.38596427 -0.18559922 0.053782027 -0.09631392 0.23175395 0.51793784 0.15991847 0.65384346 -0.09310404 0.07921679 0.4007912 -0.35423777 -0.28846443 -0.437981 -0.31385297 -0.0058024707 -0.07743877 -0.47533798 -0.4006022 0.16166118 0.3115902 0.34993795 0.22576073 0.4350664 -0.10599505 -0.028300375 0.34167168 -0.14310153 -0.5133904 -0.019535892 -0.14264031 -0.10496576 -0.20760481 -0.053891458 0.16511823 0.10049512 0.16100273 0.081648745 0.36979124 0.5657576 0.19793312 0.2743875 -0.25268245 -0.20430776 -0.07414889 0.16369613 -0.4513225 -0.050315794 0.160154
31 -0.0016811287 0.04070851 0.30769452 0.13108137 -0.0618521 -0.30633676 0.05559871 0.12599435 -0.14588472 -0.052948672 0.24101661 -0.00025226007 0.253405 -0.04436704 -0.04289837 0.10346446 -0.18097833 0.093669586 0.008500128 0.17259794 0.18060853 0.13348116 0.4619248 -0.09323888 0.046531074 0.27200693 -0.26485163 -0.04191981 -0.027147572 -0.13707049 -0.21326941 0.041408695 -0.490226 -0.39407545 0.18557611 0.23367779 0.13212828 0.2853988 0.43825886 0.026266785 0.21520199 0.17425795 -0.09398394 -0.37866533 0.054572925 0.07406652 -0.028698094 -0.25730997 -0.054650806 0.12745601 0.19979122 0.17440665 0.08860599 0.24431685 0.38745788 0.26417524 0.22108835 -0.12753212 -0.018305006 -0.11924335 0.06972772 -0.28916356 -0.10669639 0.13379268
30 -0.09051106 0.13159433 0.32094032 0.12341115 -0.10780433 -0.31678152 0.062513396 0.07468814 -0.107005045 -0.05639701 0.26753154 0.06706766 0.35386637 -0.13638452 0.014481976 0.022526082 -0.1950999 0.10180668 0.06626509 0.1425709 0.06888888 0.14592485 0.41272712 -0.06306473 0.026027985 0.24116649 -0.23384215 0.028699879 0.08839795 -0.07451353 -0.2804746 0.067141004 -0.5362056 -0.38478568 0.19719173 0.21292877 0.03298241 0.3063844 0.48671407 0.055710085 0.31470624 0.12758125 -0.083074965 -0.38679197 0.057154592 0.11317424 -0.025579238 -0.27844024 -0.06364751 0.0908846 0.276812 0.15982886 0.11249414 0.20237699 0.3576538 0.2875022 0.22396219 -0.11514465 0.023444485 -0.14511706 0.04676285 -0.24980575 -0.11176541 0.13864984
25 -0.06420358 0.08390761 0.3243227 0.14768071 -0.068679005 -0.3146218 0.06767992 0.10333749 -0.11578082 -0.028948769 0.299761 0.02847295 0.3270078 -0.09117487 -0.04086086 0.08225208 -0.19336332 0.10913959 0.015977984 0.18744177 0.107966825 0.15302947 0.44984326 -0.08145536 0.007553838 0.28522685 -0.2833832 -0.029327812 -0.02819116 -0.12681554 -0.24141689 0.037504774 -0.5672523 -0.41929805 0.20818593 0.25627628 0.09475976 0.28061292 0.49641857 0.035898384 0.24653764 0.18284862 -0.11835318 -0.42051747 0.071881995 0.08432319 -0.030245336 -0.26564154 -0.060151212 0.14028186 0.26745498 0.19976297 0.11208752 0.21516983 0.39394322 0.29662645 0.24881598 -0.120932 0.0022829 -0.09521017 0.050112918 -0.27953032 -0.13201006 0.1694757
29 0.005171206 0.040251836 0.34304243 0.159907 -0.062097013 -0.3137672 0.066233136 0.12241335 -0.13911125 -0.053588625 0.2833969 -0.026119797 0.29860178 -0.028260086 -0.050613932 0.13169777 -0.18888317 0.089691624 0.008922433 0.19170813 0.1817138 0.15760463 0.5039173 -0.08455993 0.04334703 0.28730527 -0.27532387 -0.059325382 -0.06202912 -0.15860888 -0.22543035 0.013399714 -0.54604846 -0.43980697 0.19219688 0.2363158 0.12261636 0.27912015 0.48402387 0.028377457 0.23484656 0.19155121 -0.11180368 -0.44020975 0.054128416 0.06709151 -0.029773185 -0.27059644 -0.056188233 0.13721916 0.21607909 0.17517756 0.07673448 0.2514859 0.4277983 0.28849703 0.24183784 -0.15627603 -0.010084627 -0.11255132 0.07778922 -0.29820585 -0.11832343 0.14408451
5 0.22472414 -0.16668619 0.3061345 0.19883008 0.056163196 -0.26837593 0.05773424 0.17050384 -0.2144975 -0.02378262 0.22858244 -0.21033792 -0.015196388 0.20070376 -0.22704369 0.36291933 -0.1801419 0.0628393 -0.09718341 0.23637074 0.49409178 0.16621737 0.61773753 -0.0781505 0.0672811 0.3821212 -0.36191535 -0.2634992 -0.40188995 -0.27116174 -0.044075392 -0.066357374 -0.42279932 -0.38639468 0.1565431 0.2706683 0.35620448 0.22623757 0.44465795 -0.098661326 -0.04212931 0.318164 -0.11273417 -0.49051136 -0.023561686 -0.1214519 -0.087322064 -0.19822368 -0.054071486 0.16368277 0.101443075 0.1444158 0.07567973 0.34618106 0.5328834 0.22201471 0.2812016 -0.25283754 -0.1855483 -0.07966961 0.13649924 -0.4315187 -0.07947084 0.12654227
11 0.21233776 -0.16436785 0.32361668 0.19113481 0.04578425 -0.27300864 0.061029527 0.18491684 -0.21457091 -0.013879563 0.210097 -0.18685403 -0.0046057696 0.19898094 -0.24619228 0.3468554 -0.16493012 0.058585104 -0.096573554 0.20330016 0.4690643 0.14297453 0.60816675 -0.08767458 0.07297423 0.3755108 -0.35638383 -0.25412065 -0.40351185 -0.29668796 -0.01778803 -0.06995609 -0.44010025 -0.37320077 0.1756291 0.2669341 0.33687884 0.20528705 0.43385115 -0.096934184 -0.028808475 0.31055424 -0.107224286 -0.4637891 -0.02709585 -0.12440899 -0.065468594 -0.19221534 -0.056466296 0.17035528 0.10334255 0.15740556 0.052658845 0.3349394 0.5373072 0.21603476 0.270587 -0.24803714 -0.17266196 -0.07067353 0.1544724 -0.43619823 -0.08398099 0.13808593
26 -0.07496484 0.09682156 0.35450667 0.1803045 -0.09989433 -0.35123923 0.090464495 0.10208553 -0.14831862 -0.045772366 0.31839904 0.019645562 0.36824274 -0.11269956 -0.026824413 0.08418237 -0.19535063 0.13046336 0.041930255 0.20066574 0.107911214 0.19537924 0.48131323 -0.086996265 0.012072924 0.3020983 -0.30910113 -0.03868179 -0.02007546 -0.14071582 -0.28025284 0.0515722 -0.6274279 -0.46163854 0.22958958 0.282743 0.124035135 0.31862095 0.53947335 0.027319042 0.2989501 0.19160807 -0.10231644 -0.4314162 0.08643751 0.11422712 -0.054858636 -0.319411 -0.056515638 0.14364171 0.30056173 0.21052201 0.12396038 0.24248466 0.44247532 0.30587158 0.24397835 -0.13045493 -0.0045508603 -0.12458229 0.06724703 -0.31390992 -0.1255139 0.18879478
20 0.0763511 -0.06601373 0.29129475 0.15261143 0.0013993953 -0.28599274 0.06208084 0.132941 -0.1829885 -0.031661477 0.23161069 -0.07750044 0.15955615 0.046074864 -0.116844505 0.20051214 -0.15162022 0.08592864 -0.021928897 0.19617689 0.30011693 0.14353642 0.5086864 -0.07763033 0.06751849 0.28440654 -0.29975516 -0.12171121 -0.18827702 -0.17996238 -0.118957855 0.012250045 -0.44538665 -0.3632561 0.17181091 0.22669025 0.20463264 0.23259908 0.44574472 -0.008697948 0.1214453 0.22258915 -0.08708198 -0.3969358 0.018832825 -0.015794309 -0.022301601 -0.20535392 -0.04805694 0.13909952 0.1393424 0.15907346 0.08404738 0.25092348 0.4156357 0.2449437 0.24250777 -0.15808061 -0.06922362 -0.098162755 0.115445666 -0.3326941 -0.08904622 0.14254238
13 0.12333096 -0.100601465 0.30451274 0.14028853 -0.003958604 -0.28751954 0.051393803 0.14953196 -0.16738711 -0.038028996 0.2329632 -0.1108856 0.12738205 0.086602435 -0.13257189 0.20584594 -0.16177973 0.07753763 -0.04066999 0.18096589 0.33640662 0.13763438 0.4853772 -0.08852353 0.06446789 0.276677 -0.3137262 -0.15255284 -0.2011498 -0.18617935 -0.10983183 -0.00030763095 -0.4049484 -0.36829102 0.17210476 0.23863885 0.23316307 0.23897183 0.4136124 -0.03312596 0.083050705 0.2334089 -0.095790654 -0.39915374 0.021713726 -0.039247546 -0.046017874 -0.21465158 -0.030469153 0.15452877 0.12656212 0.17254512 0.052626587 0.24839252 0.43732414 0.22644022 0.23360392 -0.16949321 -0.08650408 -0.08036237 0.10967955 -0.3409922 -0.10180797 0.11944478
22 0.1395818 -0.104718 0.28442556 0.14716376 0.033424385 -0.2650466 0.06074392 0.14776294 -0.19525613 -0.02602431 0.22195114 -0.13764264 0.09025782 0.10497839 -0.14211364 0.24537972 -0.1519506 0.052848104 -0.043746315 0.19119075 0.3624092 0.15049453 0.51577014 -0.094835095 0.06688958 0.30944338 -0.31975165 -0.14533897 -0.26305726 -0.20792998 -0.084907815 -0.009463013 -0.4150377 -0.36457112 0.14791623 0.24091077 0.23830742 0.23194079 0.40475413 -0.05734003 0.046979122 0.25040218 -0.1117038 -0.42012686 -0.006163079 -0.0361173 -0.040666707 -0.1871204 -0.05246819 0.1561491 0.10039062 0.15611893 0.05427125 0.26673388 0.4399025 0.22248274 0.23007399 -0.2016485 -0.111100815 -0.08390937 0.1193356 -0.33124182 -0.09423823 0.14297579
18 0.1466245 -0.11889418 0.2931748 0.1819452 0.030896591 -0.293251 0.051986642 0.16348733 -0.19099307 -0.018804764 0.22320963 -0.14176208 0.0985974 0.08688831 -0.16360031 0.24040008 -0.14251982 0.08277887 -0.059979122 0.20990238 0.38303873 0.14720577 0.5555783 -0.08057824 0.07492028 0.3058339 -0.33841562 -0.1693568 -0.24516064 -0.23317553 -0.10447226 -0.0058015077 -0.42794496 -0.37463292 0.15664122 0.24889594 0.2654354 0.22842628 0.4515963 -0.02675704 0.0648434 0.24880722 -0.10833741 -0.44617853 -0.0051128617 -0.045058485 -0.05007198 -0.20090109 -0.059968386 0.16557343 0.11134028 0.1607235 0.07999229 0.2950839 0.46289816 0.23020126 0.2349644 -0.21171588 -0.11117292 -0.06693708 0.13125455 -0.3519927 -0.08382814 0.14915508
17 0.24027155 -0.20219216 0.36887494 0.22793467 0.06792693 -0.30916813 0.06482407 0.21460143 -0.2335112 -0.028620323 0.24284883 -0.24731757 -0.02174294 0.22476113 -0.28894407 0.41754946 -0.21313977 0.06576402 -0.100640275 0.2318934 0.5653683 0.1916099 0.7036553 -0.09035543 0.0841766 0.4454759 -0.37525615 -0.3066847 -0.44971353 -0.3257491 -0.026065834 -0.08309603 -0.5019292 -0.4475599 0.186834 0.33373263 0.39164487 0.24212909 0.4751128 -0.1310339 -0.028063659 0.3400291 -0.15303823 -0.53517395 0.0050201747 -0.12915765 -0.110574365 -0.23560257 -0.04478926 0.19350755 0.09416591 0.15639883 0.08152088 0.40288332 0.6114791 0.23318213 0.28834572 -0.29439038 -0.21972062 -0.08924824 0.17586242 -0.47373 -0.0689931 0.16528721
23 -0.03814975 0.07178809 0.27316165 0.14259905 -0.05873977 -0.27889523 0.0769407 0.11058787 -0.12132992 -0.0463685 0.24267797 0.003466949 0.298619 -0.07895569 -0.0071026846 0.06975232 -0.17930028 0.0782086 0.015266544 0.13287576 0.110804215 0.14319365 0.4056694 -0.083599165 0.026124498 0.24165586 -0.21975891 -0.005993706 0.021141948 -0.09596044 -0.22682635 0.046105113 -0.5018946 -0.3772047 0.15841544 0.22433886 0.09125159 0.2802294 0.44233128 0.017793294 0.25043228 0.13626574 -0.07748674 -0.3595057 0.046617292 0.07612951 -0.029763505 -0.26286054 -0.0388934 0.10615818 0.23293518 0.13987665 0.091586 0.21089235 0.3667639 0.2376688 0.22453363 -0.13179204 -0.01794333 -0.12174181 0.056227885 -0.26462698 -0.116992794 0.118677475
10 0.013074928 0.012252733 0.2859738 0.1426984 -0.05832153 -0.28653002 0.07313821 0.12761141 -0.15816872 -0.029003933 0.24375571 -0.028921233 0.24032192 -0.034664575 -0.0440317 0.12762679 -0.16344218 0.07697098 -0.0011999503 0.15468672 0.19079755 0.14434627 0.45515043 -0.06351857 0.06223484 0.25154597 -0.23490317 -0.052176487 -0.055635273 -0.129959 -0.178112 0.025941242 -0.46920714 -0.3798575 0.14945215 0.22001134 0.14169218 0.25646046 0.43016988 0.015406167 0.1984311 0.15805599 -0.090089254 -0.38710824 0.048871137 0.06268521 -0.013511422 -0.22245157 -0.037720997 0.13271017 0.19568725 0.17364717 0.06635067 0.24581169 0.3837395 0.23162818 0.22566625 -0.13016106 -0.013782848 -0.09343051 0.09262413 -0.27634382 -0.091064624 0.13486545
15 -0.016311858 0.04972882 0.2927059 0.14132036 -0.067111365 -0.2813163 0.070643194 0.0882782 -0.10708318 -0.0579235 0.22443338 0.01324219 0.2787297 -0.06641774 -0.022540402 0.099793196 -0.18556659 0.07882836 0.018263461 0.13807292 0.1344438 0.15489401 0.424396 -0.074019276 0.04026595 0.2593593 -0.20984186 -0.012416343 0.0049476335 -0.121129274 -0.20915589 0.020666612 -0.46537015 -0.36949962 0.14913507 0.2246126 0.107570976 0.25550598 0.43894517 0.022486506 0.21801382 0.14570689 -0.090085395 -0.36459413 0.056325343 0.08369134 -0.013070996 -0.2595552 -0.055148687 0.10134675 0.22166125 0.16044725 0.07465163 0.21892688 0.34208503 0.24141414 0.22252004 -0.1279171 -0.02130679 -0.11985914 0.058863662 -0.25852087 -0.10097925 0.14093487
19 -0.029417666 0.056140017 0.30485335 0.13877891 -0.061261475 -0.27305466 0.08134153 0.116722 -0.13593759 -0.028449275 0.25007322 0.019738162 0.27106652 -0.05034816 -0.01936661 0.085601866 -0.17098086 0.09492268 0.03946798 0.14416721 0.13799125 0.15470639 0.4149065 -0.089478925 0.0276796 0.2524756 -0.23760553 -0.013401035 0.0056461203 -0.11569008 -0.20580736 0.03138038 -0.49034494 -0.3892753 0.18020222 0.21408807 0.10798783 0.28213465 0.44454557 0.028335458 0.23241004 0.14804116 -0.08607293 -0.3708578 0.058880188 0.08401905 -0.021295577 -0.24306434 -0.0676698 0.12431912 0.22791019 0.1471873 0.08721796 0.21457863 0.3673254 0.25272784 0.2275674 -0.1295807 -0.013420623 -0.109525904 0.079596914 -0.27758333 -0.12065563 0.12153713
16 -0.04978241 0.083597876 0.26699156 0.11878267 -0.08632168 -0.27186242 0.059702363 0.078874886 -0.10811479 -0.031187601 0.22877699 0.01841636 0.2975438 -0.07878094 -0.024964187 0.07547445 -0.19236846 0.08378968 0.032865647 0.1254051 0.107881986 0.15210186 0.40922073 -0.06065743 0.03337198 0.2389471 -0.21682714 -0.013869724 0.036570147 -0.090192296 -0.23420748 0.030627413 -0.49411085 -0.37267342 0.17048807 0.22153436 0.07840292 0.27174392 0.43940005 0.030948639 0.24376772 0.11923477 -0.089605264 -0.35387915 0.055464957 0.10193297 -0.02912511 -0.25778365 -0.063908234 0.098254606 0.21479169 0.15087947 0.09019341 0.19875881 0.33043364 0.24804986 0.21369626 -0.107065655 -0.0066207545 -0.12234419 0.04851685 -0.24592665 -0.10603128 0.12629119
21 -0.021139344 0.056903675 0.27971882 0.118177705 -0.06972261 -0.28955248 0.06415922 0.10108111 -0.1333943 -0.02979404 0.21701822 0.00065585057 0.26096764 -0.052930012 -0.012449783 0.091325305 -0.17123467 0.09008313 0.025946992 0.1545987 0.12731335 0.14425255 0.40829194 -0.07337369 0.048595406 0.24157299 -0.2125959 -0.013605564 0.019253707 -0.09701376 -0.2015783 0.02597385 -0.48101786 -0.35674784 0.15150179 0.20976004 0.08539703 0.2699748 0.41063392 0.039778516 0.22956342 0.13097735 -0.08153047 -0.35630137 0.040300634 0.07121094 -0.021342495 -0.26048464 -0.05253856 0.111020066 0.20643848 0.15257517 0.085788175 0.22945718 0.34601545 0.24296226 0.21063066 -0.124013096 -0.022242136 -0.10066446 0.058529418 -0.26681688 -0.11823758 0.11737995
27 -0.028371967 0.07659934 0.34419402 0.13818403 -0.0749183 -0.33542952 0.066514656 0.12665595 -0.13614722 -0.054874722 0.26406613 0.007230311 0.3201387 -0.060364272 -0.020912768 0.07877365 -0.22155026 0.11808266 0.028149946 0.16114427 0.16211537 0.15456672 0.49428344 -0.088323206 0.029904317 0.286886 -0.25783503 -0.0034564238 0.0033133938 -0.1175998 -0.2526749 0.03807045 -0.56719667 -0.42538756 0.19082355 0.24182172 0.09593086 0.32394415 0.51010793 0.027264278 0.2610028 0.18382609 -0.116340004 -0.41662174 0.05994929 0.10546478 -0.014317447 -0.29410386 -0.058160767 0.12402189 0.23307851 0.1746401 0.09907894 0.25954518 0.4290546 0.30223066 0.2319216 -0.13471879 -0.022111906 -0.13128248 0.07624084 -0.29021788 -0.11893062 0.15889879
12 0.14357157 -0.100584455 0.27057168 0.1455116 0.02785058 -0.26673943 0.051177897 0.14405824 -0.18230082 -0.036761433 0.21027178 -0.11988122 0.08504931 0.11072132 -0.15825962 0.23841158 -0.13545384 0.06820412 -0.044040147 0.17714353 0.3540655 0.1256689 0.50340766 -0.09688912 0.05818895 0.27566093 -0.30522966 -0.17005582 -0.2540302 -0.20614143 -0.08033186 -0.026954653 -0.41130054 -0.35961115 0.15697955 0.22427677 0.22534908 0.21130311 0.41198564 -0.03197596 0.03476502 0.24103962 -0.10912667 -0.41668373 0.006507112 -0.047303222 -0.057924118 -0.20090422 -0.049545262 0.15529352 0.100204915 0.16845235 0.061096184 0.26277062 0.44755197 0.21176758 0.21942413 -0.17597139 -0.09499501 -0.058789395 0.111864455 -0.34855902 -0.08178726 0.11671903
